digraph Tree {
node [shape=box, style="filled", color="black"] ;
0 [label="Glucose <= 0.713\nentropy = 0.933\nsamples = 614\nvalue = [400, 214]\nclass = 0", fillcolor="#f3c4a3"] ;
1 [label="BMI <= 0.175\nentropy = 0.818\nsamples = 515\nvalue = [384, 131]\nclass = 0", fillcolor="#eeac7d"] ;
0 -> 1 [labeldistance=2.5, labelangle=45, headlabel="True"] ;
2 [label="Glucose <= 0.568\nentropy = 0.174\nsamples = 115\nvalue = [112, 3]\nclass = 0", fillcolor="#e6843e"] ;
1 -> 2 ;
3 [label="Insulin <= 0.041\nentropy = 0.079\nsamples = 102\nvalue = [101, 1]\nclass = 0", fillcolor="#e5823b"] ;
2 -> 3 ;
4 [label="Insulin <= 0.04\nentropy = 0.439\nsamples = 11\nvalue = [10, 1]\nclass = 0", fillcolor="#e88e4d"] ;
3 -> 4 ;
5 [label="entropy = 0.0\nsamples = 10\nvalue = [10, 0]\nclass = 0", fillcolor="#e58139"] ;
4 -> 5 ;
6 [label="entropy = 0.0\nsamples = 1\nvalue = [0, 1]\nclass = 1", fillcolor="#399de5"] ;
4 -> 6 ;
7 [label="entropy = 0.0\nsamples = 91\nvalue = [91, 0]\nclass = 0", fillcolor="#e58139"] ;
3 -> 7 ;
8 [label="BMI <= 0.154\nentropy = 0.619\nsamples = 13\nvalue = [11, 2]\nclass = 0", fillcolor="#ea985d"] ;
2 -> 8 ;
9 [label="Age <= 0.625\nentropy = 0.811\nsamples = 8\nvalue = [6, 2]\nclass = 0", fillcolor="#eeab7b"] ;
8 -> 9 ;
10 [label="BMI <= 0.149\nentropy = 0.592\nsamples = 7\nvalue = [6, 1]\nclass = 0", fillcolor="#e9965a"] ;
9 -> 10 ;
11 [label="entropy = 0.0\nsamples = 5\nvalue = [5, 0]\nclass = 0", fillcolor="#e58139"] ;
10 -> 11 ;
12 [label="entropy = 1.0\nsamples = 2\nvalue = [1, 1]\nclass = 0", fillcolor="#ffffff"] ;
10 -> 12 ;
13 [label="entropy = 0.0\nsamples = 1\nvalue = [0, 1]\nclass = 1", fillcolor="#399de5"] ;
9 -> 13 ;
14 [label="entropy = 0.0\nsamples = 5\nvalue = [5, 0]\nclass = 0", fillcolor="#e58139"] ;
8 -> 14 ;
15 [label="Glucose <= 0.358\nentropy = 0.904\nsamples = 400\nvalue = [272, 128]\nclass = 0", fillcolor="#f1bc96"] ;
1 -> 15 ;
16 [label="Age <= 0.358\nentropy = 0.506\nsamples = 107\nvalue = [95, 12]\nclass = 0", fillcolor="#e89152"] ;
15 -> 16 ;
17 [label="BMI <= 0.668\nentropy = 0.38\nsamples = 95\nvalue = [88, 7]\nclass = 0", fillcolor="#e78b49"] ;
16 -> 17 ;
18 [label="Age <= 0.025\nentropy = 0.342\nsamples = 94\nvalue = [88, 6]\nclass = 0", fillcolor="#e78a46"] ;
17 -> 18 ;
19 [label="entropy = 0.0\nsamples = 27\nvalue = [27, 0]\nclass = 0", fillcolor="#e58139"] ;
18 -> 19 ;
20 [label="entropy = 0.435\nsamples = 67\nvalue = [61, 6]\nclass = 0", fillcolor="#e88d4c"] ;
18 -> 20 ;
21 [label="entropy = 0.0\nsamples = 1\nvalue = [0, 1]\nclass = 1", fillcolor="#399de5"] ;
17 -> 21 ;
22 [label="BMI <= 0.259\nentropy = 0.98\nsamples = 12\nvalue = [7, 5]\nclass = 0", fillcolor="#f8dbc6"] ;
16 -> 22 ;
23 [label="entropy = 0.0\nsamples = 2\nvalue = [0, 2]\nclass = 1", fillcolor="#399de5"] ;
22 -> 23 ;
24 [label="BMI <= 0.336\nentropy = 0.881\nsamples = 10\nvalue = [7, 3]\nclass = 0", fillcolor="#f0b78e"] ;
22 -> 24 ;
25 [label="entropy = 0.0\nsamples = 4\nvalue = [4, 0]\nclass = 0", fillcolor="#e58139"] ;
24 -> 25 ;
26 [label="entropy = 1.0\nsamples = 6\nvalue = [3, 3]\nclass = 0", fillcolor="#ffffff"] ;
24 -> 26 ;
27 [label="Age <= 0.125\nentropy = 0.969\nsamples = 293\nvalue = [177, 116]\nclass = 0", fillcolor="#f6d4bb"] ;
15 -> 27 ;
28 [label="Glucose <= 0.539\nentropy = 0.799\nsamples = 128\nvalue = [97, 31]\nclass = 0", fillcolor="#eda978"] ;
27 -> 28 ;
29 [label="BMI <= 0.268\nentropy = 0.604\nsamples = 88\nvalue = [75, 13]\nclass = 0", fillcolor="#ea975b"] ;
28 -> 29 ;
30 [label="entropy = 0.229\nsamples = 27\nvalue = [26, 1]\nclass = 0", fillcolor="#e68641"] ;
29 -> 30 ;
31 [label="entropy = 0.715\nsamples = 61\nvalue = [49, 12]\nclass = 0", fillcolor="#eba069"] ;
29 -> 31 ;
32 [label="Insulin <= 0.296\nentropy = 0.993\nsamples = 40\nvalue = [22, 18]\nclass = 0", fillcolor="#fae8db"] ;
28 -> 32 ;
33 [label="entropy = 1.0\nsamples = 36\nvalue = [18, 18]\nclass = 0", fillcolor="#ffffff"] ;
32 -> 33 ;
34 [label="entropy = 0.0\nsamples = 4\nvalue = [4, 0]\nclass = 0", fillcolor="#e58139"] ;
32 -> 34 ;
35 [label="BMI <= 0.554\nentropy = 0.999\nsamples = 165\nvalue = [80, 85]\nclass = 1", fillcolor="#f3f9fd"] ;
27 -> 35 ;
36 [label="Age <= 0.625\nentropy = 1.0\nsamples = 154\nvalue = [79, 75]\nclass = 0", fillcolor="#fef9f5"] ;
35 -> 36 ;
37 [label="entropy = 1.0\nsamples = 141\nvalue = [69, 72]\nclass = 1", fillcolor="#f7fbfe"] ;
36 -> 37 ;
38 [label="entropy = 0.779\nsamples = 13\nvalue = [10, 3]\nclass = 0", fillcolor="#eda774"] ;
36 -> 38 ;
39 [label="Insulin <= 0.143\nentropy = 0.439\nsamples = 11\nvalue = [1, 10]\nclass = 1", fillcolor="#4da7e8"] ;
35 -> 39 ;
40 [label="entropy = 0.0\nsamples = 1\nvalue = [1, 0]\nclass = 0", fillcolor="#e58139"] ;
39 -> 40 ;
41 [label="entropy = 0.0\nsamples = 10\nvalue = [0, 10]\nclass = 1", fillcolor="#399de5"] ;
39 -> 41 ;
42 [label="BMI <= 0.1\nentropy = 0.638\nsamples = 99\nvalue = [16, 83]\nclass = 1", fillcolor="#5fb0ea"] ;
0 -> 42 [labeldistance=2.5, labelangle=-45, headlabel="False"] ;
43 [label="entropy = 0.0\nsamples = 2\nvalue = [2, 0]\nclass = 0", fillcolor="#e58139"] ;
42 -> 43 ;
44 [label="Insulin <= 0.079\nentropy = 0.595\nsamples = 97\nvalue = [14, 83]\nclass = 1", fillcolor="#5aaee9"] ;
42 -> 44 ;
45 [label="entropy = 0.0\nsamples = 2\nvalue = [2, 0]\nclass = 0", fillcolor="#e58139"] ;
44 -> 45 ;
46 [label="Insulin <= 0.637\nentropy = 0.547\nsamples = 95\nvalue = [12, 83]\nclass = 1", fillcolor="#56abe9"] ;
44 -> 46 ;
47 [label="Age <= 0.692\nentropy = 0.496\nsamples = 92\nvalue = [10, 82]\nclass = 1", fillcolor="#51a9e8"] ;
46 -> 47 ;
48 [label="Insulin <= 0.17\nentropy = 0.439\nsamples = 88\nvalue = [8, 80]\nclass = 1", fillcolor="#4da7e8"] ;
47 -> 48 ;
49 [label="entropy = 0.0\nsamples = 14\nvalue = [0, 14]\nclass = 1", fillcolor="#399de5"] ;
48 -> 49 ;
50 [label="entropy = 0.494\nsamples = 74\nvalue = [8, 66]\nclass = 1", fillcolor="#51a9e8"] ;
48 -> 50 ;
51 [label="BMI <= 0.256\nentropy = 1.0\nsamples = 4\nvalue = [2, 2]\nclass = 0", fillcolor="#ffffff"] ;
47 -> 51 ;
52 [label="entropy = 0.0\nsamples = 2\nvalue = [2, 0]\nclass = 0", fillcolor="#e58139"] ;
51 -> 52 ;
53 [label="entropy = 0.0\nsamples = 2\nvalue = [0, 2]\nclass = 1", fillcolor="#399de5"] ;
51 -> 53 ;
54 [label="Age <= 0.142\nentropy = 0.918\nsamples = 3\nvalue = [2, 1]\nclass = 0", fillcolor="#f2c09c"] ;
46 -> 54 ;
55 [label="entropy = 0.0\nsamples = 1\nvalue = [0, 1]\nclass = 1", fillcolor="#399de5"] ;
54 -> 55 ;
56 [label="entropy = 0.0\nsamples = 2\nvalue = [2, 0]\nclass = 0", fillcolor="#e58139"] ;
54 -> 56 ;
}